-0.281712981515418
0.2813342504436776
-0.24322413835465717
0.3649999516311363
0.13590097668371892
-0.024042061875490496
0.14279876949690679
-0.209953876743029
-0.010840490698050131
-0.08178129315771569
-0.25165712338059243
-0.038391068485853955
0.37796851302081463
-0.030876962211742107
0.207009119888645
-0.4170619341390137
0.2982994489091782
0.3285608311292461
-0.3364535706113566
0.406280753451169
-0.1342359195486399
-0.24257164385102348
0.5203573932699989
0.45293184755505816
-0.45658883531577094
0.2713993178477769
0.37962036540273764
-0.14060204949017047
-0.2840836104709559
0.05443517062471631
0.17839228887801248
-0.5070645324598471
-0.05165607139343081
0.1787599362138387
0.17123688085040087
-0.4959646248592786
0.11261179786631274
0.3381449556856864
-0.3376282736796517
-0.5588489604536949
0.003433821932880606
0.1784803593711099
0.38686107348051574
0.08879902354539547
-0.2835244293847797
0.11447783605552411
-0.35633597233692355
0.048843792527520365
0.07762307482950576
-0.02235644048634188
-0.2975118259697044
-0.1576020543738918
0.3216811831812574
-0.005689206087517247
-0.3763123788012137
-0.46162118771079147
0.5824712703288663
0.35378670049487065
0.4652785304769309
-0.33942825978855024
-0.2490278062321485
-0.21768763119750922
-0.16064109299115625
0.06376607668030723
-0.2735714031153248
-0.2255061314176073
0.16194492725195847
-0.19468832503437883
-0.1518275696072489
0.0423497024979242
0.08817238997821723
-0.4610298312900695
0.34048806946883087
0.06069109800380732
0.26944399596846075
0.29161824236212974
-0.1830742860938294
-0.3959258696553074
-0.16774206783486537
-0.26015243353585493
0.31324084040373645
0.4405440596535513
-0.35958419406079034
0.014611098709320942
-0.2605544305103337
-0.38528074953580344
-0.3567957804790707
-0.35038940051844086
0.04082810893040166
0.028462688910048283
0.03304269979128645
0.36612685887081214
0.09066733570504393
-0.09129011044763978
0.3997434644281573
-0.4101334238467594
-0.4174663391424316
-0.10841266276944579
-0.38140707708800853
0.560374302336543
-0.1205076366577262
0.17257470941980918
-0.4868002778020365
0.3072347818870573
-0.31835673930531233
-0.2693660050089543
0.346300348801551
0.3310131386719686
0.10834185262345593
-0.23805610109826356
0.11588177068954952
-0.2801589635082093
-0.3599889358771012
-0.19431642014334213
0.13276733265840626
0.06062449411897837
-0.08932581110289355
0.30688151635046257
0.48974528227859654
0.3197794551131047
-0.3164227681539421
-0.15467206578030468
0.36006921689894617
-0.04923886952340249
0.5776759063764846
0.13207667502015033
-0.1089060946774986
0.002356115714271219
-0.2196201781312501
-0.3383061198773163
0.1676472410608499
-0.06903311353213273
-0.22404863160264882
0.15412605031006368
0.23500980186482462
-0.33286750548178984
-0.05664069663682287
0.2408073441070583
-0.21284049617460485
0.11935122681538816
0.5659083627508794
-0.4692821000696019
0.012272320786448639
0.19006254961339986
0.495242317612839
0.15743307369577564
-0.27286567068677214
-0.46098190038677095
0.28034948538295185
0.05158214392360569
0.3124298692733287
-0.014844627162982911
-0.3589618842194821
-0.06779739035627448
0.20352404781379504
-0.17506952879810986
-0.22852080936939106
-0.06020057828388639
-0.5248248801224468
0.16204561804970105
-0.13039941534031568
-0.2198679850140921
0.351523311427116
-0.11562685562398241
0.4246985480038013
-0.02760368202132895
-0.01243581053301837
-0.05306505863641055
0.4083756365654489
-0.40513768244473736
-0.023043204453242764
0.0362997630703977
-0.22184541917546818
-0.06713977236411266
0.12287006755791133
-0.12687051113118578
-0.388062539154521
0.06972743336826887
-0.55415792828061
0.37408138735798685
-0.2679999968518542
0.35992501902333834
-0.5639294014731034
0.11053698910458794
-0.5127543308905111
0.3035591468819913
-0.41041781033926605
-0.47710527220354315
0.26974981318981756
-0.3464131032326636
-0.3136744918223151
0.4590363112635213
-0.32287215799338936
-0.35384694065617833
-0.18495002971592547
-0.06615633367205122
-0.47933945434438746
-0.35244231486336175
0.014692307066756585
-0.2109923171174614
0.16049381012851954
-0.17035474866218628
-0.34205250026541134
-0.39494218425084515
-0.46917589332840276
0.33470761476290956
0.05683000610560864
0.08522961930874373
-0.3205292280056474
0.19773851344694404
0.09402824264809236
0.04777696220169232
0.13069689018649977
0.4617289171667013
-0.20651741673423712
0.006063097716397468
-0.22796928367385494
0.24450869730679614
0.3029460614361283
0.19790726560065883
0.2369329829550326
0.44775587101607844
0.06254299761696219
-0.29620107149833746
-0.2701812630619386
0.07837264830132261
0.4104819191804595
-0.11310135282392014
-0.44958147813199967
0.40608818576975925
0.006562281472514617
-0.34320098032634316
-0.3731227778639122
0.39610747689600173
0.1860665472162232
-0.004304361863714101
-0.32729341326543215
0.08875671352545138
-0.14059881929998477
0.2596301234816438
0.11082873610982708
-0.5038351487451347
0.0190631876644511
0.2473976274628748
0.434812802868284
0.26916786852805574
0.11125912224359352
-0.43236496795618135
-0.010617982184981483
-0.107070529768373
-0.14585357582362102
0.534748597966699
-0.05026736386896829
0.33034348872765323
0.38331830952178925
-0.24318137717126173
0.5647204873363788
0.03976759806676895
-0.05146936594016085
0.37123885300299897
-0.39259402592381115
-0.07813975272133927
-0.1384605588478037
-0.4756248646632948
-0.022229744426184212
0.5526075541829224
-0.10472091282592362
-0.38633889627684875
0.36811640289637415
0.0069582297363236165
-0.12560725850423946
-0.11900870867324582
0.5778093362847921
-0.37298514666932936
0.21557582171789494
0.39317023782686866
-0.32582291113031636
-0.06999366729902275
-0.29255052505882984
-0.12801304288776127
0.06148899630460773
-0.46971608309872936
0.026566830447635213
-0.29071011331251456
-0.5136680277143882
-0.20791973865821917
-0.2699457105726299
-0.1294568170108188
0.2660873160836652
0.00846578832556233
-0.1187348689320209
0.26439413700212744
-0.5768145876628183
0.006164809172610576
0.6172469727527803
-0.1928016355169265
-0.43681245113028483
0.3092143880786323
0.04179571408293565
0.46986891532319375
0.14645408538107807
-0.053180385638816385
-0.12567056913673855
-0.31704330065099545
-0.3445788600706137
-0.06943662860246357
-0.3537197309204674
0.2428772466350101
0.3372707961592272
-0.01529599229883781
-0.3028785254728159
-0.6252479265581407
0.07196734153041155
0.09383024632149377
0.1031174151883545
-0.4613970013338299
0.09151539990397245
-0.17101928422591323
0.227530718610992
-0.19263646211750832
0.2873876566159902
0.4874096391079276
0.38749233714771436
-0.12733060731861987
-0.07032299196131182
0.10437446710563503
0.3885966117872143
0.04876856197898876
-0.07435950998856272
-0.13979087145739524
-0.16878843239532787
0.1675332015724224
0.4742459621578667
-0.2735811292237233
-0.11802865789189523
-0.13305641246466723
0.1398195133556168
-0.4010024726780141
0.06310125479383676
-0.4946339003650847
0.27810998039728296
-0.21365831584810355
0.5123716373800614
-0.0025288603809336604
-0.29041742655636965
0.029634446246067342
-0.008320841210075867
-0.44550525975480343
-0.3627184982540043
-0.07463120287677456
-0.4005483429540008
-0.07908553304351386
0.20174861064988908
0.03684956512151999
-0.23199888389659545
0.19536076105937739
-0.5750732469935488
0.27741810274910916
-0.36009514959581157
0.44369332308676135
-0.25952899194459844
-0.12751245671769837
-0.20872054984059998
-0.45712775197121536
-0.3277308535006228
0.2555269305760409
-0.2869523519512388
-0.23540502685462394
0.5315114793494421
0.29679845444494807
0.37029452883414277
-0.2815512144058686
-0.36316923064762485
-0.46854706918285266
-0.389724272273839
-0.09638750026491147
0.4175417067556563
0.2849609086785849
-0.5496288584883692
0.16119354777729816
-0.20234185298558213
-0.5818356189963886
0.23339305172653643
0.3797988921916521
0.11629432864459348
0.07923847995232672
-0.019197600139537516
0.26003078740797353
-0.5394309271957297
0.23834222662984403
0.20684269541245304
-0.17818128371533976
0.2849633450932781
-0.4120634416196682
0.5343174611680727
0.4081928682842251
0.47358243069752615
0.3825602661577384
-0.14252959799573653
-0.5014336190326951
-0.13617003440580133
-0.45804219318690315
0.05716389255725614
-0.1500457638139732
0.026414432581380813
0.41590144449138317
-0.2806271762462014
0.18769572639272675
-0.0685658301430898
-0.0550024219502335
0.09107192407416771
-0.31933585976493867
-0.052182714277978166
-0.08966863469355742
-0.0466183021020997
0.45917953476660156
-0.37545997445676615
0.2956348821619334
-0.14462852108894741
0.45880400697943924
0.075551437825596
0.1677398878121751
0.0658219014311416
0.21820613551964022
-0.34137940356511526
0.0868562941256604
0.4228422159417121
-0.28407547427156055
-0.14747789686520824
0.26886777253400945
0.5817339433202304
0.030908307348858653
-0.1293712021498452
-0.14270623012131292
-0.15999851591841324
-0.053436363839544226
-0.4035998792342843
0.040155237603178635
0.0909984263513182
-0.19106666117830362
0.024274710084258935
-0.2472063599337382
0.09863220498212782
0.34730572104406704
-0.39777524936553466
-0.0004461885518687622
-0.24326356240634595
0.33845318154960274
-0.20171061614643024
-0.22539321717658858
0.380786923259271
-0.28810798323913356
0.2371805001495742
-0.07047985123232552
-0.27822185319633413
-0.33566450944368864
0.050071649392901624
-0.2975293456114058
0.46004266971494434
-0.14153860476648059
-0.3044841754312005
-0.21383136709869546
0.3730679471002801
-0.5313824958184665
0.05867614869593241
-0.33020361801456133
-0.25280078136243067
0.23318730943855792
0.2370644542939529
0.40178327063423463
-0.16296958601220526
-0.4649554839337362
0.19745032406376029
-0.35280975008451687
0.39583809710226747
-0.1638298512724333
-0.0286379689608189
0.33027667201927824
0.3759300782828141
0.09128307219829604
0.11935925887134005
-0.4228636762835947
-0.21355616433673322
0.07585283787634996
0.46571857527904115
0.4953026750776149
0.3557775259726212
-0.18213659326435358
0.37101862083170123
-0.04525561423574353
-0.07386201883380793
0.21971875557972118
0.37990136580518885
-0.34927298638674514
-0.46894069411027817
-0.24295529744211125
-0.13955006742441153
0.33711674494719085
-0.030456528232780684
-0.18916941777173213
-0.4303430289194534
0.20779708210182307
0.05582924685937691
0.4284003726593762
0.2593178157266562
-0.44592917848759756
0.27481443075417605
-0.5197139430127238
-0.11425833535095518
0.461824814560133
0.05139357381036695
-0.11231300205053381
0.1549322588498378
-0.3738765354187577
-0.09940031732659688
-0.05941625125299486
-0.3924496616916018
-0.17348821617202867
0.2812656281008706
0.0035306537118351532
-0.04894588941267878
-0.4354818958463958
-0.06707019998197698
0.04190634090417287
-0.08338923474150559
0.26533264318480787
-0.06031662263105904
-0.25197147914076434
0.04848499847423911
0.059843317489967914
-0.2544032657408625
0.048308894945970356
0.24408244878523608
0.2594645896713527
-0.4455337123164693
-0.3354420891427593
-0.35103985152405526
-0.3260160516815411
0.2634829010924085
0.12845957562592583
-0.26933345376101037
0.3555346522305706
-0.0256388386351573
0.21797363592679775
-0.21405313060885145
0.2213176658146129
-0.2139745831784989
0.14519549283465813
-0.10352639620585659
0.14454416352514934
-0.21352847488993326
0.5466192541671218
0.47761770902366973
-0.28115320294010254
0.112603368800944
-0.2860015755650038
-0.37130080124042
-0.34763539008770267
-0.005721762561076285
0.45765014126694326
0.3046143126831032
0.05834511365136037
-0.28618297144966554
0.09973674925086541
-0.4722076043667571
0.2691108550893917
0.3211742875675672
-0.300445296399456
-0.3318977923883177
-0.023850868410376987
-0.4463576148422633
0.254770770635074
0.29369507167603365
0.1075801910131927
-0.5270868287578336
-0.12400626464270316
0.5360479830828938
0.43853953050614974
-0.1397764065171181
-0.17011520506859307
-0.01797160662623216
-0.20750859150891288
-0.03018606426879849
0.299251969273148
0.06477649082542039
0.4476786856511109
-0.34477021023868687
-0.379931895590551
0.23157495619539806
-0.3358712820038695
0.3880256321054908
-0.38137672743654044
0.2249689169852509
-0.17922960808846014
0.04003634311099832
-0.4547657135908894
0.1569256377028825
0.17599123218250026
0.3220842931992144
-0.5176438047762753
0.22238518126064455
0.36110988379794723
-0.2861586391674729
-0.49297013160933006
-0.16484505992042195
0.19688437240404275
-0.03431885388829728
-0.35898569913283584
-0.09845706403068356
0.20204744511073755
-0.36201902423179033
-0.45147669971135496
0.48608366028992556
-0.1287819066806123
-0.5022104944402428
0.5439856301675836
-0.09103552511821579
-0.40358879980051676
0.08305723367009081
-0.33666191026580605
-0.20303421689699425
-0.21753922920108043
0.08024079867561747
-0.208869057898371
0.017035787069021466
0.4465853168669293
0.2848679203524722
-0.2394015487018416
0.425553973624496
-0.2777654923774445
0.14650624517765196
-0.14712074164916386
0.15793428446165456
-0.08262495671947398
-0.22966363109686225
0.0811873754258713
0.07071323790590647
-0.11040498547826579
-0.35711428232524506
0.5631645241195952
0.31439575754920174
0.28811006181434873
0.13167321443113597
0.4429968674587671
0.30595085876317574
0.30302499809500855
0.20597931602654135
0.3442797453354477
-0.30676267353153364
-0.2891747292788443
-0.28889183186263706
0.0520089454966056
-0.3382578989324007
0.22182726572597303
0.3736855427772952
-0.20343705293743533
0.04681322772298571
0.2620389124710598
-0.21848886563994097
0.3506693532890891
-0.12060112281457849
-0.2746167541387642
-0.2302650973205521
-0.4075932526928069
-0.08283651246512415
-0.4248899497579087
-0.1815966353434987
0.3753224016099232
-0.26210993613190026
-0.19788609917140762
0.3340530721611689
-0.34411554947093004
-0.054187548646884305
-0.3234037954041853
0.550619229803993
0.11387445672990022
-0.5276392444259566
-0.04102072746712027
-0.04563334968948354
-0.340819387571397
0.061551297286214744
-0.14987518555704293
-0.40243813621231384
0.1935226392583598
0.21620412571926814
-0.3511712240648374
0.19078915550123868
-0.4365810300203545
-0.19103797150162619
0.4187068075648338
-0.08250603066020963
-0.09544037622881048
-0.15353004264735748
0.4146945502865264
-0.06744657622705826
0.4187523899393303
-0.4549487518698941
0.3844361772558572
-0.15131461101772112
0.08549495046215003
0.2359345754350293
-0.03090232749121387
0.40377185849869884
-0.06002029234049425
-0.21805009993210722
-0.41533613098156313
-0.48178692854962696
-0.5872012340244701
-0.17572428662989364
-0.24697513627428033
0.05507303599269446
-0.49007628476649867
-0.5316254203724878
0.17791461434372863
0.043643817424361624
0.5392022377451792
0.39710955534149095
-0.21054964525199527
-0.2759700834097219
0.31453559510788576
0.0008752062911711911
-0.45345512439724034
-0.05190122840658956
0.35397684258009127
0.21849249577461044
0.4673633102157921
-0.05828847175130299
0.18076071404492128
0.2566291773929826
0.05790485123925188
-0.37964371337618
0.5238921318996741
0.34219413354738687
0.43194455889826255
0.22107033991701353
-0.5232814842398793
-0.21936445677039795
0.5355495732452249
0.14450491692520542
-0.21322098889682084
-0.05534846107336752
0.05683457701419815
0.5492523638934097
0.5095239754732853
-0.16852694512736385
0.08612838961608997
0.41375341925140446
0.18635263733628193
0.2070657921744481
-0.2330670698008487
-0.1535555279258428
0.21897598285407377
0.27087248672789266
-0.42384890111817586
0.2311093391927939
-0.33295496633321586
-0.006193217794970817
-0.26350043862891304
-0.5507518688104333
-0.13582095649641018
0.002367135041608562
0.037725161885140204
-0.2120023722837393
0.09054870333110211
-0.222229755553612
0.003477159355433824
0.2383149887198177
-0.5261587460470968
0.13491156789691863
0.16936343763885237
-0.45156567389751734
-0.09588815377674093
-0.4569746033372648
0.2325601708587547
-0.33862277386733947
-0.3161520892947608
0.4858785730530878
-0.5012363691865306
0.14465008806009338
-0.34068865776759705
0.3046357266718046
0.19099105061457536
-0.12389854749365538
0.45505278676579
-0.42027424670267044
0.09033430025334319
0.26205047971591505
-0.38149278813206433
-0.07368100807084192
0.06959371037169672
-0.042749198548425266
0.30357436974809204
0.292007386793811
0.08752534330291749
-0.2021784973699587
0.07107608102393113
0.10841847179267147
-0.40784110046249994
-0.07020396569960971
0.325074891866519
-0.17799578403292568
-0.2215380757034937
0.1066590658639323
-0.04714893529188919
-0.3917047635710342
0.3362770337376503
-0.2391782703833259
-0.3249897332224297
0.35291777248279516
0.31723081881781545
-0.1530880486615987
-0.04553821447475238
-0.1890909254305502
0.3190115250551118
0.12509399510161157
0.1905829975553921
0.217562716321594
0.4240513560713335
-0.37465610839915403
-0.2566798062983477
0.4454989690969006
0.009081543608985559
-0.140418442835136
-0.5049114416591676
-0.20341729447361395
0.3717576138715779
0.2813391679439613
0.38519011957390564
0.05689714045660972
-0.002597324562409347
-0.12838176066477155
0.01934068828294851
0.40749520205129736
0.16364302508524925
-0.05596783393521447
-0.34158758260513644
0.3104458134762359
-0.12697256230335308
0.4052825158828094
0.2009503946261126
0.2965029280623855
-0.012239977180349245
0.07158926110836562
-0.21584283921559075
-0.1827771953061829
-0.43170233582113837
-0.22945588341660164
0.004286683537316496
-0.22632334532435663
0.014375567944565694
-0.345950163058607
0.20294325626833346
-0.1487260003605451
-0.19723133454965044
0.4645080477252804
-0.38006040734861446
0.07768954035847649
0.24669953246000342
0.23131241046649711
0.28136943733883446
-0.3094553764903835
0.09792046058361771
0.30530235263424915
-0.471033320619101
0.34925872961762494
-0.28315713812661736
-0.507154246943097
-0.4851620645875564
0.14340984911294
-0.5552763885967547
-0.3340254024373546
0.1328375461974945
0.16418511493810653
0.15101706162510167
0.32494016751300947
-0.32171658226794336
-0.34449663880418885
0.1072031257868152
0.010864502451087974
-0.4103637491152344
-0.5138477034720461
0.22990987781443534
0.23811500198185512
0.43553721696602227
-0.15076670437708556
0.09739949882454949
0.39454561255872456
-0.08944308072525876
-0.014924721453043568
0.23475748020320444
0.21694850099385457
0.2442681058219065
0.32801062787367335
-0.17688408511837345
0.4220357912247258
0.029073859704042568
0.20891015960910372
-0.3180047747833085
-0.26589600627537485
-0.32835283457113407
0.41568414354752387
-0.16453594292266568
0.21162049925604817
0.18026574860945743
-0.22426613310952329
0.04492270324330616
-0.5144323916600833
0.20514223573158064
-0.25257681469184545
0.38004294225729396
0.5841385710736275
0.39283090941594806
-0.4394476960139952
0.04197062332729975
-0.45190612264994384
0.4350791013307409
-0.025143076811750403
0.26992399162110914
-0.25359520181859907
0.550472805497228
0.023830665659344094
0.16624808382849102
0.34047784766633893
-0.33094155217391097
0.1193443039723162
0.039098635653286806
0.0030487802995646253
0.3105275769156151
0.3202208750313276
-0.42212229678434693
0.48246889591337
-0.29509880453823206
-0.3894197195224637
-0.17045003665177108
-0.4518812809640756
-0.06695193836589187
0.22325533695942187
0.31737546167635855
0.11720560176131513
0.1744800794835055
0.4353793493032078
0.5066365848980122
-0.5772971777834613
-0.02821731410124248
-0.3719669418718432
-0.4594457973677016
-0.46322908169564825
-0.4073188775377409
-0.5079143092795712
-0.13315604985086593
-0.014283456193172945
0.027367457808672935
0.06848230183832739
0.11038374774368606
0.1347786032704322
-0.2355612572544985
-0.2919176977134432
0.21025196058488488
0.4313360394145787
-0.1335572870671905
-0.28035949052535886
-0.4125136770211015
0.10894424235122939
0.5848801561872572
0.44927938718478866
-0.518865942408267
-0.5686413002681201
0.03708993217651679
-0.20970797388709572
-0.1425068770692268
0.5122142531842663
0.5045260042804065
-0.38147775456478616
0.2190116287011158
0.050994140143730764
0.31722898165542684
0.24202776135807813
0.2509886783814494
0.2889328628314932
-0.18407171821574195
-0.4506092227229622
0.07276716712383945
0.2046904733485854
-0.26567538247790196
0.20536588583169
-0.3620718419337899
0.03042660016641817
-0.15290764968664347
0.27850433037668915
-0.3791217209068052
-0.13950944546744132
-0.16187825112561463
0.07629305081498128
-0.06411514555432825
-0.4436377510814716
-0.09529122449551801
-0.05035327601803106
-0.37217925234656696
-0.36247517788801975
-0.08562082164922286
0.21990570868174775
-0.2901107138145991
0.1324084112997698
-0.4968102402718268
0.18984498246645753
0.17526219511709648
0.056774327128383865
-0.035217380737788226
-0.4205240363571846
0.25732426039458595
0.07760604589893351
-0.2876181375002664
-0.10897547383093162
0.17869630823931104
0.0898907133439909
0.16210471096361387
0.2061989328776619
-0.13224680439018147
0.3498367573950407
-0.2234297315124376
0.3176397897855976
0.18795071071453032
-0.16645019089085278
0.426045660700475
-0.4474275887983848
-0.5313588606616715
-0.3627853057068891
0.1513834272253491
0.12368571521655702
0.35414006214642046
0.3648105826095219
-0.552417274213042
0.08084869612911
-0.2739819216084134
0.3752839308030251
0.12310113155188164
-0.42315047708595704
-0.37338122026166215
-0.4662165355970006
-0.4249176303057283
-0.33968331541445224
0.4383676811774302
-0.05053666545012052
-0.14287639720362896
-0.2825493926012736
-0.0064829130457632516
0.09742738002311367
-0.5072375834709825
0.008461969951435935
0.5223278340159286
-0.019588548515763655
0.030239652815245675
0.3437191418341799
-0.5763032289536941
-0.44621306537259975
0.0017071031024389058
-0.21949180709331498
0.0026925988816437494
-0.2396587795182443
-0.35841338851510274
0.20574102393272
-0.4339036891262187
0.13157952425361424
0.34287680558989914
-0.15432975667739118
0.38941178493532924
0.4114019391711
-0.3602172303804574
-0.25514146243860636
0.24570614888671405
0.3151525388400507
0.4192129726648861
0.35361055544075226
-0.2650221971347042
0.47404441771066164
-0.16052755751391135
-0.1371153422325593
0.18415221692655054
-0.4936645531247215
0.048153446542382745
-0.3906434508592754
0.4285271711882001
-0.18837064784878313
-0.4115564312598342
-0.3008009536384839
-0.5375397371249225
0.47003903702611255
0.027817953356212986
-0.39366872167380357
-0.33859630615017167
0.41223353172161364
0.26449287411964717
-0.104357587684259
0.3951426684709816
-0.30347991345855
-0.10726877285201088
-0.02378366523698918
-0.16454617319304066
0.18751910648920528
0.3416082165706042
-0.5767460586594577
0.05013075194371709
0.44361391238633935
0.2858260599173704
0.27483575643380553
-0.1678788227961596
0.345967747228965
0.3585870726955039
0.5124541245097921
-0.615576811504454
-0.051823523032508347
-0.4772953132580765
0.18712193701435295
0.09859499973346571
-0.010531506530146466
0.4979530892372853
0.46362446113437183
0.2160204338489065
0.07116017813560996
0.028678316848673245
-0.16539086848115972
0.5663829647005405
0.16527214605324006
-0.004171226189295708
-0.44912588376808743
-0.6208387886862166
0.5293944700295284
-0.2849982281620936
-0.07276671604977301
-0.3608689854753159
-0.11655692077711013
-0.40960751798280626
0.03350417274354967
-0.3803972875913388
0.2519181576580448
-0.014180858057053965
0.22494456274057695
-0.3887380545522005
-0.5025540406909146
0.057435158776088215
-0.08926705280454754
0.1544847765572535
-0.32381569171954333
0.4429698641602317
-0.2673401049277829
-0.01815217677066482
0.3713308689597097
-0.26217117250760835
0.2750802124818838
-0.08280071497629966
-0.4425300780051982
-0.35397264702805614
0.409014996702231
0.31714191600315433
0.01337550018263434
0.30770860157963287
0.22488291367554333
0.08226188060469887
-0.280726345987949
-0.09543057706877477
0.1348534396325086
0.014070490549151798
-0.06614725757957271
0.013851144505671242
-0.23023962651984378
0.04076134806353838
0.3881277164439425
0.2860985925439429
-0.444560423871225
0.26729101328991206
0.09587171003795827
0.16438259233560953
0.1710954907677344
-0.002581987126553119
0.4453716778384165
0.39715423858270876
-0.38374698386145306
-0.5574678380028089
-0.16223696047908917
-0.04445194521113052
-0.22210950051788741
0.2088526044805956
-0.42673283654954897
0.44205980908458437
0.29977159115350693
0.44906821849040346
-0.39756089786874566
-0.4154821485110442
-0.4223325364772443
-0.19148945703369907
-0.17471455319604698
-0.4225610310983905
0.27613284484424144
0.48022079523178374
0.355466436366849
-0.40202157947801487
0.20151234267734794
-0.4085266635257762
-0.16257334112450703
-0.11749934490212717
0.03080445979734832
-0.3176214211109687
-0.10102268640614362
0.12870494296062604
0.39757680675393486
0.4549891050149665
-0.04702738801956186
0.14891413695579425
-0.006540370177894403
0.04716333933543818
0.22319879845704302
0.414898198509091
0.008535162574394125
-0.5564825695462803
-0.04178763011503831
-0.34840593029724237
-0.049609804189413825
0.0069705410125818525
-0.06131962845379038
-0.32447791979130913
-0.11182552069463406
-0.24293195140623103
-0.2199865662838556
0.037035242609995044
-0.46467343001904426
-0.045726314042946796
-0.02354363775563467
-0.2833065339628507
0.4170237754531359
-0.1241915128582586
-0.18508002574182975
-0.06349078650432487
-0.4781952230730569
-0.44935203088601705
-0.4071575239446085
0.09387762305302802
-0.022839128524336446
0.13454598773538948
0.07854779551603995
-0.3059264132641711
-0.029839266145197753
-0.3150898539854571
0.13854112640000832
0.23075019194685162
-0.33097246086394794
-0.3283706310458402
0.18146489936367255
0.3982936686027046
0.2770527091617929
0.11267548586214243
0.16216602299423938
-0.12936713978873432
-0.27125045189821956
0.026850349126277234
-0.3736888873729378
-0.49051964723177893
0.43760693483183627
0.03339860194378167
-0.38320490441373256
0.2648324052247296
0.3640344978629578
0.45185387569534896
0.0885894648240845
0.49894281478711633
0.39850019319185953
-0.13634401266443527
-0.2759668105074752
0.26240728958100445
-0.26321209908122123
-0.22005940810369853
-0.5700158162707897
0.28028467917724714
-0.0625346604239771
0.20732289956985497
0.2820388355774778
0.24968046446155032
-0.33750711028477465
0.08836774357531456
0.13700636660686355
-0.4281244043754483
-0.051182132326941084
-0.2721839076661653
-0.30086433272974755
0.07112961970895217
0.31824048286805806
0.08841359622468717
0.3083369253373624
-0.02980151545045005
0.5019340205548274
-0.4125953248781039
-0.0698795565571508
0.4167176805932301
0.17470898158751808
-0.40836594568302576
0.32139706328442774
0.11879018034735636
0.30454377128839155
0.5297137236851457
0.12917278847204208
0.06300220381134967
0.21764460506118824
-0.1560465910342047
0.27077000515202326
0.22219914648763442
0.11256076056918995
-0.27537051745849467
-0.28744922437807174
0.4111606032793301
0.07071232487227745
0.27721736935172847
-0.27142950559528656
0.33459208627323184
-0.09454017715090254
0.30710437089955406
-0.2915968074526597
-0.03394545105784213
0.24194836120047064
-0.03735529976706323
0.2218213625643096
-0.4244748899651077
0.10520550336621286
0.033303338581664906
-0.501200805430399
-0.5850719745479628
-0.09771910598017597
-0.503107543126089
0.15703025411205382
-0.3706891115283118
-0.2629451280576195
0.3603243924284463
-0.10359555975242389
0.45892484802526934
0.1212149438794561
0.025355901550940523
-0.015399007650799169
0.23118551774205748
0.1781804255572161
0.3701546438499016
0.22150044716310607
0.22145513568623004
0.259676125093144
0.3612530419782902
0.3725696703975918
-0.41912172876689957
-0.36737561511914946
-0.04283942213074712
0.38433830717524886
-0.1533128461000273
0.22486762016653872
0.13348182473529102
0.10711831062344619
-0.5024023904065608
-0.15493550338656573
-0.23670549901010718
0.36446462145891817
-0.3317911682654599
-0.12917855501820388
0.4290070293657216
0.24768915860940463
-0.10045118913839532
0.04279863037829318
0.5187265213691362
-0.38147498983731154
0.09462950402295887
0.2592605175046269
0.2826462358221554
-0.04418390333778152
0.45077672950807357
0.15924804731308367
-0.026945059943899306
0.07639644251058754
0.351376717896495
-0.228218651717774
0.13867171176972723
6.806775478113202E-05
-0.3451376328514575
-0.02219163089409038
0.11106335736887005
-0.2846635687580911
0.3602768609045081
0.4556256499495391
0.0033308577424704952
-0.459004391111197
0.4580515288144049
-0.3015228960136143
0.2338580846716007
0.43879566618809346
-0.5463532506338982
-0.19557524756086492
-0.24172092184218777
-0.16773623908651228
-0.07911949645138722
0.09626122793330787
0.4253315602995199
-0.3570972407224141
0.03804594238628494
0.3297283447112984
0.36814108617358504
-0.10358655074049987
-0.2742981396679481
-0.11229735330735682
-0.08499048070674088
0.35501856720171465
-0.24976771090803196
-0.18215434864350952
0.44959543983449535
0.26578983818301827
-0.2842917252331583
0.0024488957527881022
0.23558783847547674
0.4214893760503174
0.045084428024636074
-0.5051778585592871
-0.10499946250500433
0.3066332310648776
-0.1010597454497814
-0.2351144303280127
-0.2801398801842037
-0.5154377680441694
0.4645202308329419
0.06578116166515642
-0.15088242974654711
0.04836850433283589
-0.23481386675869592
0.10993960599558093
-0.3349210830571235
-0.2040167532546504
-0.3445995734403262
0.13716202381938217
0.4327774503198662
-0.11138571165037912
-0.2986144985819722
-0.2588720478743074
-0.16545938207654023
0.048221521393753713
-0.4920540318501493
0.4859550703288438
-0.39578634405292334
-0.44317466952165036
-0.5145333533292883
0.14812310107173346
-0.4576187575856776
0.25887512823102216
0.003526510976324439
0.4831938748488563
0.2291753002255179
0.2515987199907979
0.4407005002749173
0.2514906058880473
-0.5005575337518147
0.12533256370194648
0.15201515466291113
-0.4135582548801195
0.06756455958892284
0.11493577969734406
-0.5224803719841382
-0.03432106383242966
-0.18483686792303208
-0.5755726107450742
0.1125858596792835
0.5071964899921491
0.10188740463385973
0.10626115034869855
0.24192125545166288
-0.12926150310573745
-0.266803977419635
-0.41540740933887366
-0.40516186902715656
-0.057375603027708506
-0.39699063155258646
0.060522868739367644
-0.3400517761693443
-0.35883654302277573
-0.2269078094695932
-0.021620691649230927
0.39428187150068544
0.13456978966926483
0.35773675113077685
-0.07983817583392812
0.3883600106342716
-0.5061341223723629
0.3137596458324432
-0.4359957172359832
-0.1694881052378626
0.03648731629659082
-0.0018781729773439788
0.08113069937752591
-0.11707750984521796
0.33044991213107755
-0.38710663762956865
0.5522968540910791
-0.4975734006904962
0.40479331109281963
-0.029862057156310483
-0.27836764426003785
-0.4417847830247512
0.023745784529306844
-0.368878142854101
0.04901257344844986
0.09432048089539977
-0.1887695129120059
-0.4337139524475014
0.17613686040815701
0.07049638533491055
0.48087028947372684
-0.18551446368569124
-0.11275729917822087
0.21837639477355805
0.19978492451915975
0.2872214826682173
0.4193946322060018
-0.10709603520970487
0.3056019774276843
0.11141899804636066
-0.21123036001145304
0.03731661219860283
-0.35475833469982204
-0.02822981587027957
0.04245401936067808
0.3159927688939387
-0.34794030088896644
-0.01077462792948622
0.3483778352734021
-0.32674101197638744
-0.1786693741326864
0.22189499878310462
-0.4992304450002758
-0.35078360089898947
-0.2747991842237959
0.07540829789092675
-0.18366285070151536
0.3727147931189604
-0.4732876558845912
0.10232780059666194
0.291361565531864
0.4051563002302552
-0.15304666769792377
0.5038675473697423
-0.04753121997155972
0.31579273704772876
-0.005755947860558945
0.042537445463423786
-0.021716066494710515
-0.2537541818095083
0.04945124932912095
0.0414224542562916
0.3309155761374368
-0.5652439490559632
0.038519977660753595
-0.5368130558125717
0.2227987582203064
-0.5452077172569579
-0.056835554309501005
0.2825107517382291
0.5230691512574377
-0.007406537179752467
0.05278947917135533
-0.3516977109763681
0.33077119742289307
-0.5349019903220894
0.3936076310272384
0.14942131821124266
0.38519974251098016
0.3656766719876102
0.1148822083254713
0.46232118084423907
-0.3782799275941141
0.10832874992716979
-0.22665713408060575
-0.48901696161940084
0.4863459518023972
0.31904710681848464
0.0461803537460737
-0.09956246109489943
0.3606384664702619
0.228168684512996
0.3374684916646312
-0.11395515361443442
-0.2582920489355481
-0.1682382183075121
0.04388428678879683
0.4095080033806297
0.5183021378449659
0.2533266549104506
-0.5132271729715371
0.5135230186920524
-0.29050879244252986
0.23009054969197087
0.30941365939246845
-0.28870819912716866
-0.3019349412207757
0.243671125979884
-0.1271688617028786
0.01030921963978356
0.0014965590411902111
0.20143466679924493
0.4202295696745679
-0.11110655013009935
0.16429931034780232
-0.226722599966587
-0.03704468871563629
-0.24896504295894722
0.10455337801160983
-0.22668554351446396
0.2930652745847759
-0.2963672450608936
0.04868949131903972
0.08658134261825991
-0.3500076582154856
0.29659760426276555
0.11882382621513028
0.45815482585328293
0.42479989235753574
0.17227870755398905
0.15072098601403788
0.15291588074449922
-0.28491998762272147
-0.3968845023339648
-0.48464246984244913
0.3470071640803859
0.4335365687108168
0.12581154210460135
0.31590249244697866
-0.23056744341306543
0.4238247020041436
0.11236973795356506
-0.21459702409573686
-0.06918017347938245
0.42206560832459994
-0.22369267627459016
-0.39663903136997697
0.07313610751614028
0.06417192344368247
0.08143677882503732
-0.37233256097854833
-0.33110807491161554
-0.2686102660085862
-0.12315121145199488
0.3973085790347514
-0.11135946340340279
0.4133462403438589
0.41627680572082904
-0.1283866574487005
0.45997798355739505
-0.2854294426328041
-0.21629724911350254
0.026903580457705457
0.1365744715857673
0.1032311582714327
-0.1040697859740577
-0.219152601133775
0.23526785818517135
-0.27048940235304736
-0.45815400761021224
0.07668335272832075
0.46063299871179203
-0.03508515479381338
-0.2085703001849963
0.06912310606048054
0.23604901801282405
-0.43779622722782535
-0.41029950264393766
0.5182782172533449
0.3881813947265386
0.0050719039614471875
-0.3487129195819188
-0.10671162275663075
-0.08719983102651233
-0.14748546818229252
0.49949624468283005
0.37455206798190255
-0.23808849739248253
-0.238315028161815
0.4251461516561996
-0.04044056821416929
0.1428807499000237
0.13442335835854466
0.4253185799395339
-0.36522256541748366
0.43324834156791836
-0.3374591538076924
-0.3814919115290599
-0.10480880607548632
-0.30469959797585844
-0.2031369178055552
-0.2395711874753115
-0.04968399657928704
0.2891046330798127
0.47863759505791365
-0.023585328370403537
0.21240039291322274
0.14898532434438586
0.4783657389861339
-0.46805091643749624
0.4340154645618697
-0.48905805719008805
-0.24986489006786494
0.40278476439180055
-0.3209156162303246
-0.34552894293895053
-0.48993752904699567
-0.4531826890935617
0.2635609473708843
-0.17231863069664788
0.1816110296375474
-0.5364301850482067
-0.02024815348487887
-0.31684905258710433
0.19961612326035924
-0.19096884089235733
0.2994448525131858
-0.09200993772546798
0.19223707107255122
-0.5228444435181683
-0.5287797527762633
-0.3075051793032819
-0.524564255961134
-0.42503797949413086
-0.410311062980399
0.5268305146890319
0.3401382397271169
0.15801631041472788
-0.3527538638813656
0.36074341950660993
0.1535571637985048
-0.21087131349462138
-0.17356979167413744
-0.2175485300683116
0.3472464097905764
0.37725913778167247
-0.2203055637326091
-0.31444813743368455
-0.26079941132999673
0.35304886210538855
-0.40299233421084624
0.4719322318454663
-0.04997866748132578
0.11927760066481108
0.15255863363638478
0.47820872134193815
-0.21241925969356806
0.5210332808226317
-0.5236392211286471
-0.27987581434116426
0.48479632542383083
-0.20705797216141758
-0.4666554903461535
0.36148752255713845
-0.304684855728609
-0.07570332680087812
-0.4387857428710475
-0.05794446036730815
-0.14443061034386276
0.2509977741383049
0.2750367414795435
-0.08106612274837771
-0.05698465038003413
0.5303141559015102
-0.36639093037137305
-0.019154505571394472
-0.019817236318254695
-0.1857474588327202
0.04836181960311218
-0.38531859880591984
-0.47053204158592415
0.05421550790166942
-0.3275846764273812
0.353474285576825
0.028486003777773206
0.1169237849500909
-0.16450034248292544
-0.04185848877087375
0.3855245555714637
-0.32985500991337774
0.41851447594354846
-0.27743144159269545
0.27081968352009483
-0.25976465942737653
0.41502846281509403
0.0670552074676042
-0.1646999039319313
-0.019498073194717466
0.36220852730713315
0.23258270975881087
0.04365416371584109
0.2885492659947798
0.08889813229213836
0.01026778260689522
-0.05796601957418439
-0.5180341198899189
-0.49472245967279876
0.46934902834919573
0.47168749630030715
0.19515059838218654
-0.3485563224170669
0.500545558767551
0.32247652835855545
-0.2595891462635064
-0.35847183212617784
0.13607892677600347
0.27673560197586533
0.07802628912236133
-0.08753562700882224
-0.31142142624744035
0.0782525664739589
-0.03382471427145497
-0.1245857112682168
-0.265068325659064
0.12235597528357761
-0.39897951165868706
-0.19560595407164955
-0.10867317442800258
-0.36761879711727
0.43868541596229177
0.057111492002675436
-0.45184287357363284
0.32468540354003017
-0.4736970793447511
0.18499590565758825
0.008197975908546014
-0.42302200320319266
-0.32525253431544077
-0.5238464747023673
-0.3927363569779857
-0.4502527388949905
-0.1275948822310301
-0.11751867746736482
-0.056474922696376634
-0.45272351602631516
-0.30954436016159
-0.27730089118424217
-0.4032082413360893
-0.09953375611759116
0.14298027092669388
0.41842087203948114
0.1062752925721446
-0.24384611112349783
-0.36059516065997155
0.3338526013285357
-0.3747556620336177
-0.48268222751192297
0.25165069528433115
-0.29063632549721025
0.27795893062503807
0.20924087170563238
0.3275618948553888
0.26052241751164157
0.06314153712285633
0.4085687503173296
0.17064152552419934
0.05911927559032475
-0.3122828538848181
-0.044710378065621934
-0.5007284850779942
0.3506834956630589
-0.18826058754037991
-0.4525992964031717
0.31986832130653514
-0.4141324898955062
0.22737829581068816
0.16061425782859426
-0.350646928508321
-0.2634811011486812
0.11268296715603486
-0.33452249242670373
0.01307749464587542
-0.5242357919674256
0.03682574246647186
-0.19049040315876928
0.37488787726944195
-0.3496914273052545
-0.26306017145449023
0.35091549712528813
-0.021553556516331115
-0.194323448262954
0.10276064257631681
-0.24044980121857445
-0.31014601827836485
0.11883696075219247
-0.4926328365248264
-0.07408228622057621
-0.3483170587017807
-0.054360763217682545
0.15228743074441067
0.12277357713152896
-0.5235166818093712
-0.17960194724449796
-0.36509216029052066
-0.2815142425864469
0.21687311760304806
0.2177754966394994
-0.09310568598932267
-0.026595440083899774
0.08678880203563936
-0.12017352171722777
-0.39086072673085426
0.1122700885302651
0.0785120006145991
-0.4605832148104746
0.10153318752556324
0.24895752711367544
-0.36731299965484954
-0.2920126972789145
-0.03226560075481249
0.2393015897499371
-0.24920852926194278
0.11672776454023849
0.32773177399929704
0.32626439249623157
-0.05911696537753722
0.07905153566636702
0.3484900579796156
0.35569051889781217
-0.4004460933691635
-0.4478567630505101
-0.27635429246344845
-0.03565305657175214
0.40178980666217573
0.36179619495530174
-0.24644761729653056
0.025649418432803207
-0.4920484228544628
0.08094320589241398
-0.35221878275060375
0.1641102107155381
0.3930132978256651
-0.03244837072327399
0.11033629378279286
0.2145098961960813
0.1646789613427202
0.32535451544174954
0.08691413000642223
-0.07931810894517996
0.4066269305684419
0.5037264588067843
-0.34310408362390826
0.24055431762804533
-0.35936402951220336
-0.13739269120030892
0.26003364855256506
-0.21899642314638915
0.3163008565013922
-0.3894248811015784
-0.11529418078656818
-0.45645380684118375
0.044925996908837425
0.23246313788821882
-0.5142440864816209
-0.07088402616814661
0.43355619650014426
-0.16719275058039887
-0.3657020157197969
0.19453682078956086
-0.15340637417252045
-0.4902944646878619
0.2300646794214912
-0.48552412768509756
0.19608507860294877
-0.4380613205707311
-0.14378065550775498
0.2223504234763515
-0.6922619202289687
0.030768664661925172
-0.21452460894613157
0.5529717895691755
-0.02845390443596098
-0.026058512986606216
-0.4795733885459067
0.5838155350520684
-0.3725914173889098
-0.23096032033805927
-0.30382662027070334
-0.14552956142599785
0.22421577225288197
-0.4962323096938407
0.32601181784072353
0.18559120970147716
0.22074245918385924
0.150071809190545
0.5796159286464615
0.06207683604259489
-0.3020999944895621
-0.1593199928957129
-0.011858633308522545
0.06880496502589911
-0.13448413711754378
-0.04228829138268057
-0.40000202704089716
0.1314221215998336
-0.35089657787121353
-0.014423784857356296
-0.17587122395614233
-0.0805262148012612
0.3714181523266092
-0.11717177657967251
-0.7098120526343559
-0.01018344848673738
-0.3947074982822385
0.6440874744378307
-0.07386424431161591
-0.16564647005695177
-0.08702925333040622
-0.0036950170752828113
-0.6974129077501627
-0.13095944210246319
-0.39711313215991123
-0.11199436137625589
-0.22351849637460544
0.6303648368837925
-0.5711767658628629
-0.2753219127873782
-0.15060015937973154
0.6071153614108064
-0.40221075506843335
-0.04751615097119572
-0.2589282902581501
-0.1811454028297762
0.047275952157390326
0.30875170258182144
0.411091084139112
-0.026477968987732733
-0.5361186185579394
0.2469976059474269
-0.5529105277343777
0.30112399639483073
-0.3661132837647063
0.47982277747082674
0.1902925250106364
0.06213994451267152
-0.004350060082596044
-0.044963950271775945
-0.563927823547064
0.07006933916827159
-0.22799931934791567
-0.5654928410314689
0.06342110660511631
-0.47815757793657343
0.03807550818905477
-0.559519626244411
0.10816117585069196
-0.4316209521702214
-0.22354670460815596
-0.326122250215145
0.5368413641466075
0.6343377231955246
-0.3489977455252691
-0.22177565934099014
-0.009780980403527317
-0.5140135112659575
0.5017345579050994
-0.07976196963952369
-0.4527289326113484
0.05811523066293718
-0.43922644215990253
-0.2539868264543346
0.38500441193544915
-0.3290074331251274
0.26383200163566
-0.4414725959411252
0.6355939871291318
0.11555672616190192
0.1891304810638081
-0.4744281190409427
-0.35686000452999306
0.2920707495072637
-0.24210679544484032
-0.46018240666843924
-0.283508305289266
-0.24680439375315164
0.16714116836692314
-0.021323086431091157
0.43790240493196736
-0.2492905939697407
-0.38772237942955556
0.18319455642973406
-0.43937893990934157
0.3321938551659457
0.3185555288166097
-0.5996753490833238
0.2657112528765945
0.6757301269359522
-0.19656290629776652
0.5774287778056318
-0.36524826331631716
0.23022499094308024
-0.0078365550318218
0.2467635479810082
-0.695879866675777
0.20873664723479016
-0.4455531356649727
0.003544415192596721
-0.28374017807443397
0.2361176704919008
0.4324293325654324
-0.1872800125473937
0.054696796967299566
0.40335996212533054
-0.516533058332308
0.2958605681948471
0.6498270804177786
0.5824196136785436
-0.17700326215449305
-0.6022753635199651
-0.749784485349548
0.6222949773736106
-0.5661967162017063
0.43693207603841816
-0.23589968382165102
-0.05428302485303725
-0.27213783895947047
0.2620477566504092
0.20963410383111922
0.38649998211847686
-0.35286304490064124
-0.2645674525420547
-0.4645081768664417
-0.5566051568264392
0.26715368240504106
-0.0751768139868737
0.009496921928567607
0.3415386041263324
0.009693384260963602
-0.6005658426405027
0.01606748279250712
-0.02827494570474518
-0.5730802348052482
-0.06634448761134548
-0.35862603310166585
-0.0989394635706608
-0.17057358483432045
-0.12432819597883268
0.02426534766748787
-0.09529216507588556
0.1474715473398364
-0.311865126067539
0.08330796811048712
-0.5775439218638828
-0.08753178286853869
-0.570615376604998
-0.01291237023451201
-0.216984941464839
0.3924971695494866
-0.7447950178232423
-0.7135374547734856
-0.15763102860992714
-0.3070693440306212
-0.21474715904270403
0.6213745652059464
0.11053569810555361
-0.5749842417259741
-0.35974210360943215
0.5058692137591134
-0.01719342876875609
-0.37528972042166064
-0.6654251854967496
-0.6285765301143501
-0.2599268932446657
-0.22266546289918854
0.2651066003688829
0.23332113966374465
-0.2863603607681065
0.5115325537373121
0.43957787071554055
0.01694317116784621
-0.13255982272930913
-0.449652259267968
0.09989110345519595
0.141988083309079
-0.2140895610267659
0.24666221229381233
-0.5405480242432105
0.17361248185592476
-0.388828911633316
-0.11679176838111122
-0.47460887254702855
0.16014836933812462
-0.03822740381985695
0.5502335793665755
-0.3922192717771213
-0.3584039075626022
-0.04688935112705375
0.029786026584904198
0.3583394913647136
0.6598551173184475
-0.708575415060238
-0.19028069605184292
-0.29652541556504003
0.14388678252973425
-0.47297903598048574
0.02446774694756525
0.25277283831974984
-0.3919679694312209
-0.03221243560033051
-0.1872327626124153
-0.4414115591988129
-0.10919871451787161
-0.08705939635680637
-0.7761442977061341
0.24262494044523045
-0.1306924527083318
0.35610236163203124
0.3485642690709944
-0.6276354349340731
-0.5289731350200095
0.4137898618988524
-0.4449277953498868
-0.3075921114396094
0.18850915371931812
0.421921529039849
0.5970760007172444
0.16059789905267638
-0.11672443924090621
0.47152586717295647
0.10573506292835365
-0.12602281906309584
-0.029144555032729124
-0.36528072350554597
-0.3103869136000302
-0.03491439464213309
-0.5881069793456576
-0.3149893779145011
0.40862509834205096
0.08443101013211261
-0.027130279934887366
-0.052158125756919534
-0.3249642785673638
-0.06747973655961818
0.393199269456842
0.6907831996620433
-0.2655058640250926
0.4993955865658056
-0.31260241963750157
-0.10301530879193528
-0.0036148129119583186
-0.24353402598815385
0.1819707042145608
-0.19590312436939245
-0.7251463254774229
0.27266194715555697
-0.23158195334031106
-0.1732783219992427
0.000624647532460924
-0.17629678483833705
0.3164500288082935
-0.14906645763058435
0.37425216260997324
0.2705386531156733
-0.30104452678483046
-0.6080070134312707
-0.36173809092804526
0.5965806161343506
-0.000757821001344514
-0.05179925313210381
0.010463837704997038
0.17237678782971969
0.4310988144038739
0.24100025782593407
-0.22346870204833555
-0.06465727597634652
-0.34607895033249436
-0.6317567400139331
0.13871783853536732
-0.11859230359877064
0.48410074351150756
-0.2849562385649893
-0.005326302781008469
0.2441699808082302
-0.6660053303806003
0.20702211461171183
0.047819621965302
0.10600384511405271
-0.3049864652040744
-0.00814622257374014
-0.20541449881750892
0.012107535317895208
0.2931155442583455
0.3153168263640578
0.07078735124818196
-0.2892724835883887
-0.14076457202560758
0.606394778659147
0.04870621903645619
0.47991006199640895
0.04771975969107461
0.20787129903792978
0.3408727983278715
-0.49362670840024037
-0.1630957186987199
0.15858770483629114
0.05590815468034508
-0.6662184309066449
0.3120299326918899
0.28772165529891475
0.08825986263540632
0.2982076166450295
-0.3689633800714972
0.292327711941534
-0.013686514532655177
0.2584290100360018
-0.2207151023617415
-0.13926100576765008
-0.6288078164439754
-0.26188909749385014
-0.37669942751240326
-0.5594498624112993
0.14291993705014563
-0.35823780675460803
0.09360798011875282
0.19306388936869134
0.06343898925497575
-0.47078543667368733
-0.5630504385504104
-0.7828242085330235
0.013921944639004244
0.26903446746867543
0.1710104735539739
0.25129777515224705
-0.11024304907581944
-0.32672934757123345
-0.5682676382606848
0.1764646971261326
0.30958238175610364
-0.5040066540899444
-0.19733509938775515
0.7328964520629686
0.2500379432339769
-0.2693260245765466
-0.543643531975016
0.0631954163821407
-0.39722292815001986
-0.2475220547914308
-0.17587839933010974
0.2794383591343702
-0.44067543575809637
-0.4832319411278255
-0.06459358808207848
-0.3956665701083051
-0.5638295017065342
0.37481530864027307
0.5502646790141307
0.06728679197254721
0.41108048079395443
-0.4767772391107919
0.27963286837806406
-0.6140828342485225
0.28495343333855966
-0.27893397092730104
-0.6126389812332232
0.24883369798099872
-0.017225484944010435
0.39719572091576927
-0.2517173690179927
0.39265580815176915
-0.1365103983305411
-0.21626065962997848
-0.6924837027613683
0.2302477885906422
-0.15900749329742
0.2171127949060017
-0.3520148603270132
-0.012443465822289727
0.16557187856439926
-0.4697529838162922
0.4065954127143405
-0.12233223177893167
-0.5029250237736318
-0.5466378627054636
-0.34382734982624236
-0.6245395840269435
-0.29881314714544455
-0.28472839078896967
0.5469336638095371
-0.30669436598513755
-0.14261640429007416
-0.43689256508575214
0.13273064366597032
0.008416557870546381
0.454270266032958
0.2979689347642316
-0.17047297334063183
-0.07539100298391543
-0.4448379144960869
0.42867515149430024
0.18717071137463576
0.34887618388113706
-0.20914633513291395
0.7047825867647773
-0.075925736392832
0.431399813426102
-0.17350899240023415
-0.2789669395136016
-0.2998083578621155
-0.4507214402562297
-0.13016497986360234
0.244360622694756
-0.06997865452144482
-0.21284126264014577
0.2963107085057742
-0.12853532195627432
-0.3315823908595026
-0.42434213823714884
-0.13197445733405383
-0.23575215450383977
-0.19641794002710516
0.0125789152810513
-0.47052563619467985
0.09290999850663553
-0.04998974053444791
0.25088231663802185
-0.6119139610483925
-0.6982564296671027
-0.43150921546367127
-0.5382257678774535
-0.3710024715063453
0.34720357970509025
-0.5694030104306418
-0.40209594860848163
-0.6099761171603052
0.20229019286309902
-0.33907522835642745
-0.03854844564262517
0.2675306620009858
0.11626966717321555
0.4221893223981031
-0.155314731337044
0.4888089079098009
-0.3821312423525663
-0.7821156662882234
-0.15056611162221903
-0.4414307168953918
0.5961884889216945
0.35724129604454236
-0.26737904678742686
-0.7475735350116565
0.43953493659088944
0.3112114690249828
-0.7090437027704937
0.21243227124693048
0.6296583757642794
-0.17774360048736662
0.4873373960929532
0.6430511728620323
-0.03756934122853293
-0.5785079712047222
0.3307148119658548
0.011286659611199786
0.0009084177554736546
0.024422975957946385
0.025245743677876437
-0.0013880777269898812
0.05356369258721032
0.0039704068599895025
0.011985882495953754
-0.017260822897226868
0.004487743428131677
0.004730361977711795
0.031012356451322144
-0.022294285041879237
0.01582840034707983
0.03807125986635329
0.013091133514916973
0.008101336393107453
-0.003188013586742847
0.030140743823099322
0.001885281370785536
0.0025964558048666743
0.0011199351548616524
0.0036786583588522322
-0.01894644564906604
-0.017272440774926005
0.005413496062432888
0.014153409976323734
0.0017540097717232426
-0.007953174061780888
0.009370235215492134
0.003935934032148422
0.006971842850489452
-0.00026660572126208754
0.011255047292102145
0.004441997740927965
0.006143132374436613
0.010675983195771992
-0.016367218037150227
0.006717601396860843
0.027582367262927895
0.007825582209692901
0.009934751337538704
-0.04109956188671637
0.01808526316947979
0.007136485453607302
0.0068360986256794844
-0.009446571906983878
0.048570927183693983
0.007110832507125791
0.01245385800669473
0.0060564613135982975
0.006757464370903206
-0.06059545086279054
0.03391511398667849
0.0075445019857853695
0.006871122543805347
-0.02226157951923865
0.013691411351377945
0.0057265627350926405
0.019944441274674384
0.010222121771394588
-0.015092639452650334
0.0044531570204367965
-0.01419898797547266
0.00438565161744813
0.02325476919292327
-0.004708197523699196
0.01008826250794591
0.0009284217689965827
0.015504094891738011
-0.02688505849568123
0.0037542208450993975
0.0037830553469602192
0.004050446730526532
0.013123483230982983
0.022246681521487857
-0.0026564669503182344
0.006259292221220941
0.023665380813666623
0.0023526645435816788
0.010886845618936316
0.004405323039523805
0.007482035889730102
0.003641101167373873
0.013167690697582909
0.00933500313629174
0.009486616528966041
-0.027971053195142797
-0.029030868297317828
0.012179714866667276
0.012690913168992178
0.012718116513483143
0.00744297657069983
-0.011880777939707926
0.028437266483898264
0.005492381398927719
0.005760124905239991
0.015522531926087227
0.0075620784675964415
-0.005098044987528589
0.019042814437698233
-0.0013082994966100397
0.05237591120889014
-0.06429828581938504
-0.0015567576162031803
-0.012184899667048023
0.012242978456156675
0.012163611440188645
-0.01310018388573065
0.01403533379452435
0.027633404482834457
0.013457109584243005
0.008552380730979631
0.0008068898678359737
0.004535339200331986
-0.013459439883719875
0.007404352531827212
0.00831900254068593
0.000262334756831615
0.01052849674125358
-0.00041796636460688806
0.0027910464098834568
0.03261715078881225
0.0022948300704463656
-0.04691980305104361
0.005702839608852825
-0.015430309591450786
0.011943849474895615
0.00254293683347853
0.005744837481205701
0.0035416320848370144
0.024368191443282117
-0.01762831262644559
0.009715918472129725
0.004337839011592446
0.00840089834306646
0.001837735028056223
-0.03521573687005531
0.006025753183479383
0.005721801942932525
-0.0008327028125568542
0.017901423707991176
-0.00163602036355948
-0.04012326038887
-0.03365554920549328
0.009670906848085024
0.013123285335369588
0.03068801854353049
-0.024934243311011666
0.03267902360215103
0.002583078302433996
0.009237821026023397
0.004674072476815521
0.005759912757377046
-0.008482579809700764
0.0035685517054962336
-2.2282210415658246E-05
0.02529032922996983
0.005979455847718079
0.022445914449172526
0.03873688537496876
0.000984961434280556
0.0053138998686083905
5.6932698725181273E-05
-0.0006624652843016498
0.010057926817815706
0.0169433584757198
0.002848211148630747
0.011626500650801452
0.049180791547248845
0.00889832894032562
0.014044806748710864
0.001845127457995791
0.005869868149636797
0.010552036853793861
0.0040188309802407715
0.005090927880248541
0.0026790000547676127
0.003533698715030846
0.0029502088814182146
0.021499028852527226
0.01428352505393304
0.02996315390605838
0.004312299402085452
0.010183626676479688
-0.005728992572618746
0.04480577092087473
0.0342209414225506
0.03157590648199501
0.007896675588311187
0.01405055452977956
-0.028127793771159877
0.0021118348002429664
0.038390677570908485
0.008417307883983297
-0.010426694308706899
0.0046366559162693685
0.013675375674593662
0.054205007212240225
0.04735686720115489
0.013798628700697946
0.010413363199005135
-0.0006258298317914585
0.0030604081348927495
0.012501416056775759
-0.0034875035029698145
-0.03078704234197514
0.004590441711428148
0.004994220499709858
0.00971805783244805
0.0035610647183528096
0.0009968936488304507
0.011162647482186955
0.007679935060953674
0.01165362796995665
0.0029690932607998647
0.012665466187550612
0.006331763985814877
0.004870540976689175
-0.003441176580251152
0.004613484058233957
-0.021093224397655395
0.011306672757116722
0.022186561555342002
0.004934302082963092
0.005959985225284196
-0.012207269390643179
-0.04614671326351452
0.05984628392050285
0.006113593659485307
0.028846450524230068
-0.008015309387660177
0.028567202836021544
0.0043366659479394136
0.0033259499515811077
0.005006675499094686
0.004714197006791877
0.006738773696058523
0.013578767393309526
0.0117057154583949
0.005711145959843024
0.04900848125246895
0.0020700436081414523
0.014470647318871712
-0.0038064528180597745
-0.011823454469408773
0.06292030121771552
0.04616071347200258
0.0024338017364046918
0.021133828282395687
0.007258722786869483
0.005336718695672647
-0.000354391450688802
-0.04205082812419102
0.0012704342146453893
0.0030205924482151893
-0.00299350806232823
0.0013946461306171632
0.006397304782221991
0.008094180520816889
0.019699682104566067
0.007618997752110129
0.005986894101825652
0.022858560804361848
0.013561303510708663
-0.0126082119249342
-0.0008252933380703649
-0.006205032748950777
0.01197140209192626
0.0045444505228298925
0.005610380194400624
-0.004006605234601514
-0.0569500446314086
0.0173483205156014
-0.00486161834259149
0.006131711374113594
0.003417578572277973
0.004164534930175462
0.008948248193738805
-0.0031159985727214324
0.00702639345462111
0.0383513632292207
-7.955563840953507E-05
0.010542541899430406
0.006187493839551689
0.004795478340753517
0.0049997916942629865
-0.0016344222524365584
0.007883275507910455
-0.004493753349825007
-0.0011515240741263922
0.0072611584844526475
0.034793562287913506
0.01465059756663944
-0.018322989070108982
0.0036001083301010514
0.004889391821590625
0.004737537828993666
-0.010864287863848774
0.002953666580118327
-0.005940363997310965
0.009966919022191913
0.005850674631251131
0.011119399823481141
0.021102634130419767
0.002429236717493429
0.00595694283780125
-0.021278405925112927
0.005280651052772533
0.004305288353867483
0.0036257450707808804
0.02282205409846117
-0.001504401065626895
0.003923473898403869
0.0018447476864732388
0.016786006431720894
0.013574495072493045
0.008095403384514805
0.005179805198743337
-0.007468347497688794
-0.010882779199678344
0.002958820833506733
0.006805329393864681
0.00790579805221785
-0.03141070676452154
0.006783991876838051
-0.02393616740768403
0.0026119716737316723
0.000487208731108496
0.0034822738351437434
0.019887436122335234
0.015412564015497406
0.0015407526695570834
0.0039259119518300105
0.022153202943981886
-0.0024467955795215678
0.0019889485490615574
0.003402953611956979
-0.007610918118269219
0.015124010629972253
5.90487526159513E-05
-5.536578659918994E-05
0.003255805834127098
0.010589972211249358
0.0070427237664890735
0.03871378333093803
0.0061303251353015
0.011143421057594105
0.02520562474974419
0.0033032084536980316
0.022165580364516435
0.0026168081545207907
0.00037334407752961
0.0040531853572941265
0.01973506322751258
0.012893442100058177
0.08386118129566379
0.004852352122403323
-0.006045736780065286
0.0008631549190271125
-0.0010667463859410592
0.0065336840696936975
0.008432308419079595
0.011533535600983795
-0.005518484506995843
0.004543755658452958
0.03060665242529172
0.007642173622538625
-0.06626809700556326
0.0015668343393932947
0.02259182672452214
0.008206878918753126
-0.0005748210517161937
0.029338521726837128
0.012524871016115742
0.006676996889668303
-0.007050753064658037
0.006994966608845187
0.02300793843139802
0.019833250056403313
0.009031120463611196
0.012262864978709875
-0.009412264443782282
-0.03943190321968246
0.001393903243735395
-0.006721448268350872
0.013361297327721183
-0.002439890260955018
0.020673588182996642
0.0033835443735718037
0.01130896972229397
0.04788947970764671
-0.00840643699332206
0.004981190684038841
0.0044973258321685215
0.009194935443724126
-0.011526453368973712
0.0045406438078459295
0.008850768105627396
0.03523388127949805
-0.0012417165519588774
0.004889090442557177
-0.00772722166728083
0.00834220503133461
-0.002233211084353191
-0.001867594390498502
0.01827872413195353
-0.0056953090770910314
0.005788619370082777
0.03970885034765696
0.025444571970812038
0.005829894731449823
0.03411423601941236
0.01005921084996961
0.008603332739857531
-0.007383047452447994
0.011910427807483307
0.00515580044522805
0.006804391147215128
0.002449246724737099
0.004302305591310312
0.006064960672828313
-0.00483354896568856
0.005745638200483908
0.005222976221968265
0.018467018936040507
-0.013352828839299885
0.0030383504202650263
0.0011538930215642513
0.006746792501021772
-0.05565163832049605
0.005304449943294744
-0.007917696420516734
0.013142097175577076
0.022888315162277913
0.010389195836758588
0.008864815374069478
0.007293881440070089
0.0009314369122073377
0.004939276590839581
0.008630485942763052
-0.011785548892603182
0.006472709136726916
0.007434586592015902
0.006775987691838738
0.005885475864811604
0.011418846497555693
0.005176514152419529
0.0032725631302475615
0.015240110953697992
0.004556552278272328
0.015145346497997212
0.0005707038456488746
0.03591283018121974
0.049554327333240895
0.023720866995105692
0.021495857029903646
0.027068274543010883
-0.01213258116881243
0.043693855373133764
0.021247420453200924
0.014683712909715802
-0.004333797250557232
0.01075018250792997
0.008096098832226483
-0.005765291279949777
0.0033807387816443494
-0.00807915594035034
0.010911791274850332
-0.04958607398104718
0.010974284505469722
0.08474638205723163
0.006502020011942023
0.010653607169541843
-0.01801476852075332
0.0016652283065482646
0.010984854612668724
0.058416967398343254
-0.0058080002923721445
-0.0028041016459656107
0.05022361552695267
0.0043188892194960145
-0.04562646429503991
0.007816784656081011
-0.001329330553663317
-0.0369743190110658
0.00612204378647047
0.020967782919496077
-0.0002099887212569411
-0.10382425817175511
